{"nh":16,"ns":8,"na":4,"net":{"W1":{"n":16,"d":8,"w":{"0":0.014282283850052655,"1":0.029675324571157933,"2":0.017757916145666484,"3":0.0459878408240002,"4":0.02891217126974406,"5":0.03591032711971612,"6":0.04543685587841965,"7":0.030517590837711717,"8":-0.04709749259761614,"9":-0.0322413895588793,"10":-0.04466375141894506,"11":-0.022455444419613432,"12":-0.0424806494426659,"13":-0.04013959575120547,"14":-0.031233075064009488,"15":-0.03055232058170541,"16":0.04512204489753785,"17":0.031069132207092336,"18":0.038418427739856605,"19":-0.0007094323357896634,"20":0.0021682348509471346,"21":-0.0064600589778840214,"22":0.0375556744848346,"23":0.03933116226423362,"24":0.03585868732881542,"25":0.04655997761461471,"26":0.04756051312700701,"27":0.011494187219638158,"28":0.008218072779816102,"29":0.004293032974944932,"30":0.05798962260954821,"31":0.033746688099772944,"32":0.011468077919748187,"33":0.01665197791260798,"34":0.012581037243545362,"35":0.020561831700954835,"36":0.023940563966874818,"37":0.03645234498548298,"38":0.0275163581363834,"39":0.03698944014220607,"40":-0.23588902204592893,"41":-0.2394172884579881,"42":-0.2519727457715924,"43":-0.24605821857313478,"44":-0.2589955922442109,"45":-0.2452738308522239,"46":-0.264417612441613,"47":-0.23429485752070314,"48":0.3260136831122467,"49":0.11298803041048687,"50":0.06423068172107142,"51":0.0707900934448341,"52":0.2087215651124365,"53":0.31831079559134595,"54":0.30249567160062524,"55":0.33956107516368134,"56":-0.289227124492918,"57":-0.08836059274416042,"58":-0.09373262484562195,"59":-0.07871752769986184,"60":-0.08515587079807375,"61":-0.158720090719185,"62":-0.34186892880240727,"63":-0.32195481332671716,"64":-0.10852598933974096,"65":-0.12455272469268355,"66":-0.1362187600498195,"67":-0.030728660845197833,"68":-0.025036963878710253,"69":-0.058575534061791626,"70":-0.13850067422203413,"71":-0.12612697157939165,"72":0.017583658403644772,"73":0.03558237255751185,"74":0.01871053356203416,"75":0.011878012849463888,"76":0.010672298682490323,"77":0.02749868648105856,"78":0.013506529014285324,"79":0.023593084019283388,"80":-0.1120741823004601,"81":-0.12719782543484273,"82":-0.12013207694357156,"83":-0.11450786043868252,"84":-0.02860328103422549,"85":-0.012905117008517701,"86":-0.01872846524737822,"87":-0.09631333440397505,"88":0.07245592029721303,"89":0.05760338792343818,"90":0.08190625937465312,"91":0.011606016748292081,"92":0.005086225171156374,"93":0.004661563653207336,"94":0.002344647708804334,"95":-0.013772880799725842,"96":0.03900077253282538,"97":0.027734932796836465,"98":0.04413065583694102,"99":0.022089519273492113,"100":-0.007341281850904925,"101":-0.005835446482668611,"102":0.02918474600819929,"103":0.04308169705157252,"104":0.13830445832040536,"105":0.10797973203408798,"106":0.12305300743332635,"107":0.12644568789543137,"108":0.04876707392291317,"109":0.04324003858309805,"110":0.05821185615921225,"111":0.12164057313059112,"112":-0.46806667522961526,"113":-0.46521068288147305,"114":-0.4678114320661605,"115":-0.4789091133484825,"116":-0.10738339013964489,"117":-0.07221103732578019,"118":-0.09819316689356374,"119":-0.4471329135803015,"120":-0.08693462737974737,"121":-0.0641832739105905,"122":-0.09334943736505887,"123":-0.08863392474272941,"124":-0.07168310275071872,"125":-0.07749180169630408,"126":-0.08558314167747894,"127":-0.07589051078112481}},"b1":{"n":16,"d":1,"w":{"0":0.00018605317293091404,"1":-0.0002193582428730802,"2":0.0002947727744813169,"3":0.0003202928902542434,"4":0.00022140103173040674,"5":-0.0016029673414204807,"6":0.00225286134586752,"7":-0.0019145011856325298,"8":-0.0008810635918727453,"9":0.00003173865399802331,"10":-0.0008070899376543233,"11":0.00042610270383446324,"12":0.00020108202462563147,"13":0.0008131176246631714,"14":-0.003072580644669859,"15":-0.000510071955998064}},"W2":{"n":4,"d":16,"w":{"0":0.8129114191367774,"1":-0.7963375555402501,"2":0.25526021770208124,"3":0.3363649559171315,"4":0.2570078289934129,"5":-0.759405247089578,"6":0.22905831114839398,"7":-0.8155839813091187,"8":-0.2501758611969408,"9":0.803907212529579,"10":-0.22023717589977765,"11":-0.2719074408038137,"12":0.2959644366334655,"13":0.7821822928948744,"14":-0.22505727013449128,"15":-0.8343612644282972,"16":0.5500249379997241,"17":-0.5548127973270766,"18":0.5711324772849398,"19":0.5519038113432394,"20":0.549839078913711,"21":-0.5523210315473709,"22":0.5689153311292136,"23":-0.5311162993713678,"24":-0.5514157256964203,"25":0.5575122966643653,"26":-0.5599459770557569,"27":-0.5004922474416525,"28":0.5619803161773349,"29":0.5701820550667364,"30":-0.549889383377823,"31":-0.5632531377679181,"32":0.8417615495471973,"33":-0.7904994619261272,"34":0.23720488773584314,"35":0.2686216506675421,"36":0.24628128430280571,"37":-0.7044321952125646,"38":0.2148255267975741,"39":-0.8185190160057031,"40":-0.2258678722621424,"41":0.8108840136790989,"42":-0.2162799536221306,"43":-0.2024628679756761,"44":0.282080070545231,"45":0.8008530908530085,"46":-0.22702097674520727,"47":-0.8142279456304113,"48":0.5355709012025193,"49":-0.5465974711519582,"50":0.5660493864609593,"51":0.540007045295084,"52":0.5213859883258469,"53":-0.5550726670474763,"54":0.5355082028382004,"55":-0.5363555597926309,"56":-0.5353122143280218,"57":0.5484149800085091,"58":-0.5311907940254861,"59":-0.5044204890249256,"60":0.5261015590426268,"61":0.5544028537600528,"62":-0.5417976578395126,"63":-0.5453525309485827}},"b2":{"n":4,"d":1,"w":{"0":0.822450783769551,"1":0.557613344448821,"2":0.8086415873081063,"3":0.5496251011225575}}}}